%YAML:1.0
---
opencv_ml_em:
   format: 3
   training_params:
      nclusters: 3
      cov_mat_type: diagonal
      epsilon: 9.9999999999999995e-07
      iterations: 100
   weights: !!opencv-matrix
      rows: 1
      cols: 3
      dt: d
      data: [ 1.9864563448763192e-01, 3.9966539617128333e-01,
          4.0168896934108472e-01 ]
   means: !!opencv-matrix
      rows: 3
      cols: 3
      dt: d
      data: [ 8.6035854433056912e+01, 8.1697301713013175e+01,
          5.6827491993262477e+01, 3.3867727163951756e+01,
          2.6062311560972827e+01, 1.5375603843122834e+01,
          5.9348165928162459e+01, 5.4648188460924906e+01,
          3.5697015259273250e+01 ]
   covs:
      - !!opencv-matrix
         rows: 3
         cols: 3
         dt: d
         data: [ 2.0119691228477271e+02, 0., 0., 0.,
             2.3001635059993262e+02, 0., 0., 0., 2.8658959345516570e+02 ]
      - !!opencv-matrix
         rows: 3
         cols: 3
         dt: d
         data: [ 1.9735482482941762e+01, 0., 0., 0.,
             3.4999431678379992e+01, 0., 0., 0., 2.4645151614301302e+01 ]
      - !!opencv-matrix
         rows: 3
         cols: 3
         dt: d
         data: [ 6.5824926221440336e+01, 0., 0., 0.,
             6.3494894318284366e+01, 0., 0., 0., 8.4314374175896972e+01 ]
