%YAML:1.0
---
opencv_ml_em:
   format: 3
   training_params:
      nclusters: 3
      cov_mat_type: diagonal
      epsilon: 9.9999999999999995e-07
      iterations: 100
   weights: !!opencv-matrix
      rows: 1
      cols: 3
      dt: d
      data: [ 4.5493962410169014e-01, 2.5088553249637574e-01,
          2.9417484340193389e-01 ]
   means: !!opencv-matrix
      rows: 3
      cols: 3
      dt: d
      data: [ 7.8240824094777011e+01, 7.0969478762150132e+01,
          6.9665314715197098e+01, 5.4850934927197052e+01,
          4.9356205005683179e+01, 4.5638578139578506e+01,
          9.6574187683009924e+01, 9.1877248569092032e+01,
          9.1443343895612799e+01 ]
   covs:
      - !!opencv-matrix
         rows: 3
         cols: 3
         dt: d
         data: [ 4.0870015506742774e+01, 0., 0., 0.,
             2.9245777758899784e+01, 0., 0., 0., 3.8156906032035891e+01 ]
      - !!opencv-matrix
         rows: 3
         cols: 3
         dt: d
         data: [ 7.9555123683458717e+01, 0., 0., 0.,
             7.9368991184665404e+01, 0., 0., 0., 8.5073405269418046e+01 ]
      - !!opencv-matrix
         rows: 3
         cols: 3
         dt: d
         data: [ 1.3236978238521428e+02, 0., 0., 0.,
             2.0424439501690404e+02, 0., 0., 0., 2.8211700402903830e+02 ]
