%YAML:1.0
---
opencv_ml_em:
   format: 3
   training_params:
      nclusters: 3
      cov_mat_type: diagonal
      epsilon: 9.9999999999999995e-07
      iterations: 100
   weights: !!opencv-matrix
      rows: 1
      cols: 3
      dt: d
      data: [ 8.7151674751423669e-01, 8.0593943260910170e-02,
          4.7889309224853092e-02 ]
   means: !!opencv-matrix
      rows: 3
      cols: 3
      dt: d
      data: [ 2.6175680935981060e+01, 2.0751842595229462e+01,
          1.5209226080624106e+01, 9.4324354232685508e+01,
          9.6925966966001539e+01, 8.3609578149338219e+01,
          4.3356785846417353e+01, 4.1690905139391461e+01,
          3.0960347032744302e+01 ]
   covs:
      - !!opencv-matrix
         rows: 3
         cols: 3
         dt: d
         data: [ 2.9522004487070049e+01, 0., 0., 0.,
             1.8200231384167544e+01, 0., 0., 0., 1.3490913913108992e+01 ]
      - !!opencv-matrix
         rows: 3
         cols: 3
         dt: d
         data: [ 3.9855716892423783e+02, 0., 0., 0.,
             4.1534112685453471e+02, 0., 0., 0., 5.5686838878014009e+02 ]
      - !!opencv-matrix
         rows: 3
         cols: 3
         dt: d
         data: [ 1.0250774192517753e+02, 0., 0., 0.,
             9.0615511276701653e+01, 0., 0., 0., 1.3026188641665530e+02 ]
