%YAML:1.0
---
opencv_ml_em:
   format: 3
   training_params:
      nclusters: 3
      cov_mat_type: diagonal
      epsilon: 9.9999999999999995e-07
      iterations: 100
   weights: !!opencv-matrix
      rows: 1
      cols: 3
      dt: d
      data: [ 2.9575445238915138e-01, 1.6557988055783593e-01,
          5.3866566705301300e-01 ]
   means: !!opencv-matrix
      rows: 3
      cols: 3
      dt: d
      data: [ 6.6393076325711291e+01, 5.7748138332531219e+01,
          5.0363461663083719e+01, 1.3607344381761226e+02,
          1.1743177525406442e+02, 9.6310986913978539e+01,
          9.7342423960578330e+01, 8.2460796639742966e+01,
          6.7872826993161908e+01 ]
   covs:
      - !!opencv-matrix
         rows: 3
         cols: 3
         dt: d
         data: [ 1.9383870442955518e+02, 0., 0., 0.,
             1.2631576890760958e+02, 0., 0., 0., 1.5577540858339779e+02 ]
      - !!opencv-matrix
         rows: 3
         cols: 3
         dt: d
         data: [ 5.4283316479422228e+02, 0., 0., 0.,
             3.1629330717706353e+02, 0., 0., 0., 4.3042303236963591e+02 ]
      - !!opencv-matrix
         rows: 3
         cols: 3
         dt: d
         data: [ 1.6856136864034153e+02, 0., 0., 0.,
             7.5017035699412361e+01, 0., 0., 0., 1.5067015016167500e+02 ]
