%YAML:1.0
---
opencv_ml_em:
   format: 3
   training_params:
      nclusters: 3
      cov_mat_type: diagonal
      epsilon: 9.9999999999999995e-07
      iterations: 100
   weights: !!opencv-matrix
      rows: 1
      cols: 3
      dt: d
      data: [ 1.4690894391386447e-01, 4.4539298642659769e-01,
          4.0769806965953798e-01 ]
   means: !!opencv-matrix
      rows: 3
      cols: 3
      dt: d
      data: [ 1.5647493093570102e+02, 1.5878790262554281e+02,
          1.3001759930443362e+02, 6.3080789566887034e+01,
          5.5759465726792030e+01, 4.6632335242937451e+01,
          1.0288152432919082e+02, 1.0028076321142572e+02,
          8.0176186019845872e+01 ]
   covs:
      - !!opencv-matrix
         rows: 3
         cols: 3
         dt: d
         data: [ 4.9817435209873668e+02, 0., 0., 0.,
             3.5648493834330350e+02, 0., 0., 0., 8.7516412095284488e+02 ]
      - !!opencv-matrix
         rows: 3
         cols: 3
         dt: d
         data: [ 2.1894830907190993e+02, 0., 0., 0.,
             1.5297664994550030e+02, 0., 0., 0., 1.2543821343334383e+02 ]
      - !!opencv-matrix
         rows: 3
         cols: 3
         dt: d
         data: [ 3.0770340359094246e+02, 0., 0., 0.,
             2.8957547073442350e+02, 0., 0., 0., 5.0800334187093540e+02 ]
