%YAML:1.0
---
opencv_ml_em:
   format: 3
   training_params:
      nclusters: 3
      cov_mat_type: diagonal
      epsilon: 9.9999999999999995e-07
      iterations: 100
   weights: !!opencv-matrix
      rows: 1
      cols: 3
      dt: d
      data: [ 2.6499760384470455e-01, 5.6507702383105962e-01,
          1.6992537232423616e-01 ]
   means: !!opencv-matrix
      rows: 3
      cols: 3
      dt: d
      data: [ 5.1558096043828485e+01, 4.6242412054702960e+01,
          2.7750272851743663e+01, 3.2754377960667732e+01,
          2.7528144003872679e+01, 1.5872768637189889e+01,
          9.4161303213376584e+01, 9.8670498003389255e+01,
          6.2134707222215184e+01 ]
   covs:
      - !!opencv-matrix
         rows: 3
         cols: 3
         dt: d
         data: [ 5.3175894893539720e+01, 0., 0., 0.,
             7.5544212727539517e+01, 0., 0., 0., 5.5848399950140298e+01 ]
      - !!opencv-matrix
         rows: 3
         cols: 3
         dt: d
         data: [ 4.5362470248084904e+01, 0., 0., 0.,
             4.1482084515187516e+01, 0., 0., 0., 2.8094409087361004e+01 ]
      - !!opencv-matrix
         rows: 3
         cols: 3
         dt: d
         data: [ 6.4858474992405354e+02, 0., 0., 0.,
             8.2361471554164859e+02, 0., 0., 0., 8.3603713269218167e+02 ]
