%YAML:1.0
---
opencv_ml_em:
   format: 3
   training_params:
      nclusters: 3
      cov_mat_type: diagonal
      epsilon: 9.9999999999999995e-07
      iterations: 100
   weights: !!opencv-matrix
      rows: 1
      cols: 3
      dt: d
      data: [ 2.1884394899957371e-01, 5.1445904742409188e-01,
          2.6669700357633469e-01 ]
   means: !!opencv-matrix
      rows: 3
      cols: 3
      dt: d
      data: [ 1.2153533400659231e+02, 1.2099665494665891e+02,
          9.7469046631253548e+01, 2.5621102771144148e+01,
          2.0630212086869516e+01, 1.4748695935967692e+01,
          6.6938641374374853e+01, 6.0999109967717260e+01,
          4.8165580479852984e+01 ]
   covs:
      - !!opencv-matrix
         rows: 3
         cols: 3
         dt: d
         data: [ 7.1658053417383292e+02, 0., 0., 0.,
             7.2321373938633144e+02, 0., 0., 0., 9.5830384759204094e+02 ]
      - !!opencv-matrix
         rows: 3
         cols: 3
         dt: d
         data: [ 3.0758617720423576e+01, 0., 0., 0.,
             1.8945924613693965e+01, 0., 0., 0., 1.6258173980259230e+01 ]
      - !!opencv-matrix
         rows: 3
         cols: 3
         dt: d
         data: [ 2.6237819326538119e+02, 0., 0., 0.,
             2.3122216558054154e+02, 0., 0., 0., 1.8672582239524624e+02 ]
