%YAML:1.0
---
opencv_ml_em:
   format: 3
   training_params:
      nclusters: 3
      cov_mat_type: diagonal
      epsilon: 9.9999999999999995e-07
      iterations: 100
   weights: !!opencv-matrix
      rows: 1
      cols: 3
      dt: d
      data: [ 4.1921272370151791e-01, 2.0914302632720963e-01,
          3.7164424997127171e-01 ]
   means: !!opencv-matrix
      rows: 3
      cols: 3
      dt: d
      data: [ 1.1073516803300600e+02, 8.9668982785839376e+01,
          6.5201566151085515e+01, 8.1619279346348932e+01,
          6.7033480952777865e+01, 4.9625900760098098e+01,
          1.3691991332191097e+02, 1.1658631316822435e+02,
          9.4136075612026929e+01 ]
   covs:
      - !!opencv-matrix
         rows: 3
         cols: 3
         dt: d
         data: [ 4.7877232348127322e+01, 0., 0., 0.,
             2.8157918392997740e+01, 0., 0., 0., 2.1479872836486312e+01 ]
      - !!opencv-matrix
         rows: 3
         cols: 3
         dt: d
         data: [ 2.5106939513601716e+02, 0., 0., 0.,
             1.1663011113244299e+02, 0., 0., 0., 1.0987377042369420e+02 ]
      - !!opencv-matrix
         rows: 3
         cols: 3
         dt: d
         data: [ 6.7025449477930636e+02, 0., 0., 0.,
             3.4516609388683793e+02, 0., 0., 0., 3.4518870621065327e+02 ]
