%YAML:1.0
---
opencv_ml_em:
   format: 3
   training_params:
      nclusters: 3
      cov_mat_type: diagonal
      epsilon: 9.9999999999999995e-07
      iterations: 100
   weights: !!opencv-matrix
      rows: 1
      cols: 3
      dt: d
      data: [ 2.9179854737925298e-01, 5.8492897127112065e-01,
          1.2327248134962643e-01 ]
   means: !!opencv-matrix
      rows: 3
      cols: 3
      dt: d
      data: [ 1.0259086363985985e+02, 9.5729217908330398e+01,
          6.2877951945780332e+01, 5.6377961034535616e+01,
          4.7011631243708067e+01, 3.4766129320077241e+01,
          1.1878229155814401e+02, 1.3530188651953708e+02,
          1.0573760888894067e+02 ]
   covs:
      - !!opencv-matrix
         rows: 3
         cols: 3
         dt: d
         data: [ 4.4623791094512961e+02, 0., 0., 0.,
             1.5238286397357476e+02, 0., 0., 0., 1.5352929860266647e+02 ]
      - !!opencv-matrix
         rows: 3
         cols: 3
         dt: d
         data: [ 1.0879130756056306e+02, 0., 0., 0.,
             6.6806464701917136e+01, 0., 0., 0., 4.6069166757942916e+01 ]
      - !!opencv-matrix
         rows: 3
         cols: 3
         dt: d
         data: [ 2.9791347442575125e+02, 0., 0., 0.,
             2.6162881688470657e+02, 0., 0., 0., 1.5997290308422026e+02 ]
