%YAML:1.0
---
opencv_ml_em:
   format: 3
   training_params:
      nclusters: 3
      cov_mat_type: diagonal
      epsilon: 9.9999999999999995e-07
      iterations: 100
   weights: !!opencv-matrix
      rows: 1
      cols: 3
      dt: d
      data: [ 2.0195153912268241e-01, 6.3243115174099995e-01,
          1.6561730913631686e-01 ]
   means: !!opencv-matrix
      rows: 3
      cols: 3
      dt: d
      data: [ 3.9569783207137576e+01, 3.4011432489758661e+01,
          2.2168204444509946e+01, 2.8206069852866772e+01,
          2.2828197218064453e+01, 1.3364213622042822e+01,
          9.1572371701588310e+01, 8.8077578645493745e+01,
          6.6014038050987153e+01 ]
   covs:
      - !!opencv-matrix
         rows: 3
         cols: 3
         dt: d
         data: [ 1.7354252038668953e+01, 0., 0., 0.,
             2.2034032683970050e+01, 0., 0., 0., 2.7789383962842258e+01 ]
      - !!opencv-matrix
         rows: 3
         cols: 3
         dt: d
         data: [ 1.5774669359901338e+01, 0., 0., 0.,
             9.8834590077140749e+00, 0., 0., 0., 8.5106395500488556e+00 ]
      - !!opencv-matrix
         rows: 3
         cols: 3
         dt: d
         data: [ 1.0323700268597790e+03, 0., 0., 0.,
             1.0363993506854681e+03, 0., 0., 0., 8.5213907331290113e+02 ]
