%YAML:1.0
---
opencv_ml_em:
   format: 3
   training_params:
      nclusters: 3
      cov_mat_type: diagonal
      epsilon: 9.9999999999999995e-07
      iterations: 100
   weights: !!opencv-matrix
      rows: 1
      cols: 3
      dt: d
      data: [ 2.5170834310204021e-01, 6.7965146450789216e-01,
          6.8640192390067079e-02 ]
   means: !!opencv-matrix
      rows: 3
      cols: 3
      dt: d
      data: [ 1.5044345556518226e+02, 1.2489078827653296e+02,
          8.7188157157082443e+01, 1.1276460643962693e+02,
          9.1505119282826897e+01, 5.6377640436152127e+01,
          3.4036519943307283e+01, 2.8952186577573929e+01,
          1.8737145431861276e+01 ]
   covs:
      - !!opencv-matrix
         rows: 3
         cols: 3
         dt: d
         data: [ 5.5023159454159656e+02, 0., 0., 0.,
             3.3870737536907131e+02, 0., 0., 0., 3.2986668730068874e+02 ]
      - !!opencv-matrix
         rows: 3
         cols: 3
         dt: d
         data: [ 2.2907068984415761e+02, 0., 0., 0.,
             1.6025636656271993e+02, 0., 0., 0., 1.1199190737459220e+02 ]
      - !!opencv-matrix
         rows: 3
         cols: 3
         dt: d
         data: [ 7.0640234336784687e+01, 0., 0., 0.,
             5.8760349815194523e+01, 0., 0., 0., 4.0447069695649930e+01 ]
