%YAML:1.0
---
opencv_ml_em:
   format: 3
   training_params:
      nclusters: 3
      cov_mat_type: diagonal
      epsilon: 9.9999999999999995e-07
      iterations: 100
   weights: !!opencv-matrix
      rows: 1
      cols: 3
      dt: d
      data: [ 5.0095271582315537e-01, 1.5524729391738126e-01,
          3.4379999025946295e-01 ]
   means: !!opencv-matrix
      rows: 3
      cols: 3
      dt: d
      data: [ 6.6791258163251285e+01, 6.0120682519833927e+01,
          4.5651279073816688e+01, 4.0448156630186524e+01,
          3.2056873145871634e+01, 1.8627378942963606e+01,
          1.0309822162187696e+02, 9.1912378943005422e+01,
          6.3885021242733004e+01 ]
   covs:
      - !!opencv-matrix
         rows: 3
         cols: 3
         dt: d
         data: [ 4.5404257386187652e+01, 0., 0., 0.,
             4.0822116902105300e+01, 0., 0., 0., 8.6524027676540271e+01 ]
      - !!opencv-matrix
         rows: 3
         cols: 3
         dt: d
         data: [ 8.5610579262185837e+01, 0., 0., 0.,
             7.4010957441202180e+01, 0., 0., 0., 5.1596870695934761e+01 ]
      - !!opencv-matrix
         rows: 3
         cols: 3
         dt: d
         data: [ 2.8069249306453020e+02, 0., 0., 0.,
             2.7635576038065170e+02, 0., 0., 0., 2.8004107098860862e+02 ]
