%YAML:1.0
---
opencv_ml_em:
   format: 3
   training_params:
      nclusters: 3
      cov_mat_type: diagonal
      epsilon: 9.9999999999999995e-07
      iterations: 100
   weights: !!opencv-matrix
      rows: 1
      cols: 3
      dt: d
      data: [ 2.9232525319453706e-01, 3.1348971061163561e-01,
          3.9418503619382700e-01 ]
   means: !!opencv-matrix
      rows: 3
      cols: 3
      dt: d
      data: [ 9.4122859076400871e+01, 9.2276397479012118e+01,
          5.7440169118252456e+01, 3.7372741582482682e+01,
          2.9307810461763410e+01, 1.5635141742880810e+01,
          6.4385899468361330e+01, 5.7899200359785922e+01,
          3.6200846425853399e+01 ]
   covs:
      - !!opencv-matrix
         rows: 3
         cols: 3
         dt: d
         data: [ 1.7985687179804097e+02, 0., 0., 0.,
             2.8598447824799939e+02, 0., 0., 0., 1.9226581298210735e+02 ]
      - !!opencv-matrix
         rows: 3
         cols: 3
         dt: d
         data: [ 5.7748441166316212e+01, 0., 0., 0.,
             5.3095329969162705e+01, 0., 0., 0., 2.8334415553551416e+01 ]
      - !!opencv-matrix
         rows: 3
         cols: 3
         dt: d
         data: [ 4.3036437325821858e+01, 0., 0., 0.,
             3.9472626463643373e+01, 0., 0., 0., 7.8135779514942783e+01 ]
