%YAML:1.0
---
opencv_ml_em:
   format: 3
   training_params:
      nclusters: 3
      cov_mat_type: diagonal
      epsilon: 9.9999999999999995e-07
      iterations: 100
   weights: !!opencv-matrix
      rows: 1
      cols: 3
      dt: d
      data: [ 4.5919130012757864e-01, 1.4846314239259017e-01,
          3.9234555747983191e-01 ]
   means: !!opencv-matrix
      rows: 3
      cols: 3
      dt: d
      data: [ 7.3746584979882343e+01, 6.6129131969254644e+01,
          5.1019936446980765e+01, 3.8186899079880874e+01,
          3.4223400559502792e+01, 2.4300217893635949e+01,
          1.2265819264830121e+02, 1.0920904813470034e+02,
          8.2569838176773501e+01 ]
   covs:
      - !!opencv-matrix
         rows: 3
         cols: 3
         dt: d
         data: [ 1.4771981617207916e+02, 0., 0., 0.,
             8.9199940524325228e+01, 0., 0., 0., 9.5338188775864282e+01 ]
      - !!opencv-matrix
         rows: 3
         cols: 3
         dt: d
         data: [ 8.3655172238874428e+01, 0., 0., 0.,
             5.7776959937021438e+01, 0., 0., 0., 4.5574930034605821e+01 ]
      - !!opencv-matrix
         rows: 3
         cols: 3
         dt: d
         data: [ 6.6274674696189027e+02, 0., 0., 0.,
             6.3972997859338386e+02, 0., 0., 0., 6.2970505674981803e+02 ]
