%YAML:1.0
---
opencv_ml_em:
   format: 3
   training_params:
      nclusters: 3
      cov_mat_type: diagonal
      epsilon: 9.9999999999999995e-07
      iterations: 100
   weights: !!opencv-matrix
      rows: 1
      cols: 3
      dt: d
      data: [ 3.3758432751611733e-01, 5.7695510247035520e-01,
          8.5460570013527623e-02 ]
   means: !!opencv-matrix
      rows: 3
      cols: 3
      dt: d
      data: [ 1.1430619520639848e+02, 1.0653899352409888e+02,
          8.3375881302045656e+01, 6.3872051238384500e+01,
          5.5234221236841172e+01, 4.2081384188056568e+01,
          1.6185816563571703e+02, 1.7322690924046844e+02,
          1.4791314803847149e+02 ]
   covs:
      - !!opencv-matrix
         rows: 3
         cols: 3
         dt: d
         data: [ 4.2061469041927688e+02, 0., 0., 0.,
             2.6475962698170400e+02, 0., 0., 0., 3.0778259824808384e+02 ]
      - !!opencv-matrix
         rows: 3
         cols: 3
         dt: d
         data: [ 2.9021279467266498e+02, 0., 0., 0.,
             2.0210247435766610e+02, 0., 0., 0., 1.3895345554134664e+02 ]
      - !!opencv-matrix
         rows: 3
         cols: 3
         dt: d
         data: [ 4.7526560112733858e+02, 0., 0., 0.,
             3.2949651065628444e+02, 0., 0., 0., 3.0951726114334116e+02 ]
