%YAML:1.0
---
opencv_ml_em:
   format: 3
   training_params:
      nclusters: 3
      cov_mat_type: diagonal
      epsilon: 9.9999999999999995e-07
      iterations: 100
   weights: !!opencv-matrix
      rows: 1
      cols: 3
      dt: d
      data: [ 2.9849475661197267e-01, 3.2551773387080601e-01,
          3.7598750951722187e-01 ]
   means: !!opencv-matrix
      rows: 3
      cols: 3
      dt: d
      data: [ 1.4432200906265649e+02, 1.2478087610327771e+02,
          9.7800328798058985e+01, 2.4673248198908226e+01,
          2.0032328916289245e+01, 1.3677748672684908e+01,
          7.4329385908375272e+01, 6.7737860552737700e+01,
          5.5987526369757830e+01 ]
   covs:
      - !!opencv-matrix
         rows: 3
         cols: 3
         dt: d
         data: [ 8.7809084999564152e+02, 0., 0., 0.,
             6.2793853029150125e+02, 0., 0., 0., 6.3426114118558769e+02 ]
      - !!opencv-matrix
         rows: 3
         cols: 3
         dt: d
         data: [ 2.3513937555904217e+01, 0., 0., 0.,
             2.6708843214190562e+01, 0., 0., 0., 2.1055909692418709e+01 ]
      - !!opencv-matrix
         rows: 3
         cols: 3
         dt: d
         data: [ 3.9840598125251739e+02, 0., 0., 0.,
             2.7009188549312444e+02, 0., 0., 0., 2.5103783268880287e+02 ]
