%YAML:1.0
---
opencv_ml_em:
   format: 3
   training_params:
      nclusters: 3
      cov_mat_type: diagonal
      epsilon: 9.9999999999999995e-07
      iterations: 100
   weights: !!opencv-matrix
      rows: 1
      cols: 3
      dt: d
      data: [ 8.4833513409377648e-01, 4.6834301883314451e-02,
          1.0483056402290948e-01 ]
   means: !!opencv-matrix
      rows: 3
      cols: 3
      dt: d
      data: [ 2.9737310448208085e+01, 2.3718958855107058e+01,
          1.7546523364572948e+01, 1.0461806267962331e+02,
          1.0318863630611327e+02, 8.6198823882039619e+01,
          4.8678225938975700e+01, 4.4266037723432582e+01,
          3.2948814334449807e+01 ]
   covs:
      - !!opencv-matrix
         rows: 3
         cols: 3
         dt: d
         data: [ 2.2197362581642412e+01, 0., 0., 0.,
             2.1438070566485980e+01, 0., 0., 0., 1.7012146319555328e+01 ]
      - !!opencv-matrix
         rows: 3
         cols: 3
         dt: d
         data: [ 1.0045819031147195e+03, 0., 0., 0.,
             1.0591846059120530e+03, 0., 0., 0., 9.5427953215926652e+02 ]
      - !!opencv-matrix
         rows: 3
         cols: 3
         dt: d
         data: [ 7.1800311624787284e+01, 0., 0., 0.,
             8.3174672699746878e+01, 0., 0., 0., 1.0393378971370214e+02 ]
