%YAML:1.0
---
opencv_ml_em:
   format: 3
   training_params:
      nclusters: 3
      cov_mat_type: diagonal
      epsilon: 9.9999999999999995e-07
      iterations: 100
   weights: !!opencv-matrix
      rows: 1
      cols: 3
      dt: d
      data: [ 4.8279693999243323e-01, 2.5577304157543140e-01,
          2.6143001843213548e-01 ]
   means: !!opencv-matrix
      rows: 3
      cols: 3
      dt: d
      data: [ 7.0210157186931980e+01, 6.2081577387832120e+01,
          5.6719370421524765e+01, 1.0095168255202894e+02,
          9.2115207528147167e+01, 8.5883204808570326e+01,
          4.8002286073594448e+01, 4.1491732545090976e+01,
          3.5779771984296858e+01 ]
   covs:
      - !!opencv-matrix
         rows: 3
         cols: 3
         dt: d
         data: [ 2.4438208780683031e+01, 0., 0., 0.,
             2.2777262442352736e+01, 0., 0., 0., 2.6029398485233394e+01 ]
      - !!opencv-matrix
         rows: 3
         cols: 3
         dt: d
         data: [ 2.9425307121036997e+02, 0., 0., 0.,
             2.9402518095483657e+02, 0., 0., 0., 2.6253840803156214e+02 ]
      - !!opencv-matrix
         rows: 3
         cols: 3
         dt: d
         data: [ 1.5874737672897305e+02, 0., 0., 0.,
             1.2731298704546096e+02, 0., 0., 0., 1.0045045203886376e+02 ]
