%YAML:1.0
---
opencv_ml_em:
   format: 3
   training_params:
      nclusters: 3
      cov_mat_type: diagonal
      epsilon: 9.9999999999999995e-07
      iterations: 100
   weights: !!opencv-matrix
      rows: 1
      cols: 3
      dt: d
      data: [ 4.4034638888082617e-01, 3.0179355476151132e-01,
          2.5786005635766296e-01 ]
   means: !!opencv-matrix
      rows: 3
      cols: 3
      dt: d
      data: [ 3.6814644051939219e+01, 2.9352986444665181e+01,
          1.5423420749081043e+01, 9.2563197795735761e+01,
          9.3700431201675059e+01, 5.4559627649026332e+01,
          5.6808971682957768e+01, 5.0705073901429749e+01,
          3.0173665466980172e+01 ]
   covs:
      - !!opencv-matrix
         rows: 3
         cols: 3
         dt: d
         data: [ 4.0660036340775854e+01, 0., 0., 0.,
             5.7386328583120985e+01, 0., 0., 0., 3.5523057288833392e+01 ]
      - !!opencv-matrix
         rows: 3
         cols: 3
         dt: d
         data: [ 3.6848270335355744e+02, 0., 0., 0.,
             5.2509442208953556e+02, 0., 0., 0., 3.9510850149834135e+02 ]
      - !!opencv-matrix
         rows: 3
         cols: 3
         dt: d
         data: [ 4.8918829782798234e+01, 0., 0., 0.,
             8.2129390681125017e+01, 0., 0., 0., 5.1983594363796087e+01 ]
