%YAML:1.0
---
opencv_ml_em:
   format: 3
   training_params:
      nclusters: 3
      cov_mat_type: diagonal
      epsilon: 9.9999999999999995e-07
      iterations: 100
   weights: !!opencv-matrix
      rows: 1
      cols: 3
      dt: d
      data: [ 5.2532667118843102e-01, 4.3717331994429853e-01,
          3.7500008867270770e-02 ]
   means: !!opencv-matrix
      rows: 3
      cols: 3
      dt: d
      data: [ 1.0770663481852722e+02, 1.0213940723936172e+02,
          8.3522249950430677e+01, 5.5818054709883249e+01,
          4.8649912793782690e+01, 3.2611474943409881e+01,
          2.1988886646334839e+02, 2.2811109201791541e+02,
          1.9177775982762702e+02 ]
   covs:
      - !!opencv-matrix
         rows: 3
         cols: 3
         dt: d
         data: [ 4.7100917344948238e+02, 0., 0., 0.,
             4.4092284736681972e+02, 0., 0., 0., 4.5610211891750521e+02 ]
      - !!opencv-matrix
         rows: 3
         cols: 3
         dt: d
         data: [ 2.0270599601440938e+02, 0., 0., 0.,
             1.7160921870729044e+02, 0., 0., 0., 1.1907642550518028e+02 ]
      - !!opencv-matrix
         rows: 3
         cols: 3
         dt: d
         data: [ 4.8054504209889404e+02, 0., 0., 0.,
             4.0454451377099031e+02, 0., 0., 0., 3.3284066377523789e+02 ]
