%YAML:1.0
---
opencv_ml_em:
   format: 3
   training_params:
      nclusters: 3
      cov_mat_type: diagonal
      epsilon: 9.9999999999999995e-07
      iterations: 100
   weights: !!opencv-matrix
      rows: 1
      cols: 3
      dt: d
      data: [ 2.4075396904565169e-01, 2.5809864290634416e-01,
          5.0114738804800407e-01 ]
   means: !!opencv-matrix
      rows: 3
      cols: 3
      dt: d
      data: [ 6.0409826021054542e+01, 5.3987974372057884e+01,
          3.9930448272919307e+01, 1.5577111990259024e+02,
          1.3261857313252395e+02, 1.0224052335990511e+02,
          1.0857159305072953e+02, 8.7979482299583751e+01,
          5.9543072889503627e+01 ]
   covs:
      - !!opencv-matrix
         rows: 3
         cols: 3
         dt: d
         data: [ 3.7271474122316289e+02, 0., 0., 0.,
             2.1965492815134806e+02, 0., 0., 0., 2.0068737001876681e+02 ]
      - !!opencv-matrix
         rows: 3
         cols: 3
         dt: d
         data: [ 9.8947320059557865e+02, 0., 0., 0.,
             8.6690453727712259e+02, 0., 0., 0., 8.4134650698495773e+02 ]
      - !!opencv-matrix
         rows: 3
         cols: 3
         dt: d
         data: [ 1.0168940543706118e+02, 0., 0., 0.,
             5.7223882009672487e+01, 0., 0., 0., 5.9330947006996588e+01 ]
