%YAML:1.0
---
opencv_ml_em:
   format: 3
   training_params:
      nclusters: 3
      cov_mat_type: diagonal
      epsilon: 9.9999999999999995e-07
      iterations: 100
   weights: !!opencv-matrix
      rows: 1
      cols: 3
      dt: d
      data: [ 4.7311933323020211e-01, 2.3858773095828953e-01,
          2.8829293581150817e-01 ]
   means: !!opencv-matrix
      rows: 3
      cols: 3
      dt: d
      data: [ 3.0683476776866932e+01, 2.4161122657856385e+01,
          1.5368431679630419e+01, 7.3825258493233505e+01,
          6.5609392145628632e+01, 4.8795062795685418e+01,
          1.1485083261606562e+02, 9.8251265652020919e+01,
          7.1877820389937597e+01 ]
   covs:
      - !!opencv-matrix
         rows: 3
         cols: 3
         dt: d
         data: [ 8.4431748884872945e+01, 0., 0., 0.,
             6.2853249604031959e+01, 0., 0., 0., 4.5194727013923654e+01 ]
      - !!opencv-matrix
         rows: 3
         cols: 3
         dt: d
         data: [ 1.6873068348575600e+02, 0., 0., 0.,
             1.0482489052332785e+02, 0., 0., 0., 1.8474397620995683e+02 ]
      - !!opencv-matrix
         rows: 3
         cols: 3
         dt: d
         data: [ 3.6640222685809397e+02, 0., 0., 0.,
             2.4387162202748991e+02, 0., 0., 0., 3.3483897340864615e+02 ]
