%YAML:1.0
---
opencv_ml_em:
   format: 3
   training_params:
      nclusters: 3
      cov_mat_type: diagonal
      epsilon: 9.9999999999999995e-07
      iterations: 100
   weights: !!opencv-matrix
      rows: 1
      cols: 3
      dt: d
      data: [ 4.1066704818432109e-01, 4.5373088727371352e-01,
          1.3560206454196580e-01 ]
   means: !!opencv-matrix
      rows: 3
      cols: 3
      dt: d
      data: [ 6.2119429025723747e+01, 5.4045153714008833e+01,
          4.3533113584914162e+01, 9.3893347124708797e+01,
          8.1146591816674544e+01, 6.4468168736076805e+01,
          1.3370324775872638e+02, 1.1730088146559925e+02,
          8.5561748392480368e+01 ]
   covs:
      - !!opencv-matrix
         rows: 3
         cols: 3
         dt: d
         data: [ 1.6758445736051240e+02, 0., 0., 0.,
             1.1659153969684678e+02, 0., 0., 0., 1.3994729024642766e+02 ]
      - !!opencv-matrix
         rows: 3
         cols: 3
         dt: d
         data: [ 1.5722545162541527e+02, 0., 0., 0.,
             8.7549492527291392e+01, 0., 0., 0., 1.6196928241948089e+02 ]
      - !!opencv-matrix
         rows: 3
         cols: 3
         dt: d
         data: [ 4.9112002337416345e+02, 0., 0., 0.,
             4.0723927577900014e+02, 0., 0., 0., 5.0026861946851847e+02 ]
