%YAML:1.0
---
opencv_ml_em:
   format: 3
   training_params:
      nclusters: 3
      cov_mat_type: diagonal
      epsilon: 9.9999999999999995e-07
      iterations: 100
   weights: !!opencv-matrix
      rows: 1
      cols: 3
      dt: d
      data: [ 5.3595778020317320e-01, 1.4491085187667613e-01,
          3.1913136792015079e-01 ]
   means: !!opencv-matrix
      rows: 3
      cols: 3
      dt: d
      data: [ 6.3620847495715005e+01, 5.5028165480146420e+01,
          4.3230154906133983e+01, 1.6276551688575273e+02,
          1.5655429720079820e+02, 1.2100363154560542e+02,
          1.0514611055684699e+02, 1.0032172712115364e+02,
          7.9969333561749636e+01 ]
   covs:
      - !!opencv-matrix
         rows: 3
         cols: 3
         dt: d
         data: [ 2.1518477657598248e+02, 0., 0., 0.,
             1.5356779850789505e+02, 0., 0., 0., 1.3109502031537349e+02 ]
      - !!opencv-matrix
         rows: 3
         cols: 3
         dt: d
         data: [ 1.1244235484482922e+03, 0., 0., 0.,
             1.0286589849794564e+03, 0., 0., 0., 1.2457202583068240e+03 ]
      - !!opencv-matrix
         rows: 3
         cols: 3
         dt: d
         data: [ 2.7455869306159798e+02, 0., 0., 0.,
             2.3969665033696717e+02, 0., 0., 0., 4.1537808723012722e+02 ]
