%YAML:1.0
---
opencv_ml_em:
   format: 3
   training_params:
      nclusters: 3
      cov_mat_type: diagonal
      epsilon: 9.9999999999999995e-07
      iterations: 100
   weights: !!opencv-matrix
      rows: 1
      cols: 3
      dt: d
      data: [ 4.9722350393850678e-01, 4.2231569258881990e-01,
          8.0460803472673190e-02 ]
   means: !!opencv-matrix
      rows: 3
      cols: 3
      dt: d
      data: [ 5.7917991361455222e+01, 5.2395971128350318e+01,
          4.6501044844438375e+01, 8.9644426184796146e+01,
          8.2050814448292300e+01, 7.7406610156591242e+01,
          1.2307901986362454e+02, 1.2352992375519329e+02,
          1.0248257204740219e+02 ]
   covs:
      - !!opencv-matrix
         rows: 3
         cols: 3
         dt: d
         data: [ 1.3948690625528207e+02, 0., 0., 0.,
             1.3788420193674520e+02, 0., 0., 0., 1.5400815534293682e+02 ]
      - !!opencv-matrix
         rows: 3
         cols: 3
         dt: d
         data: [ 7.4006700764954488e+01, 0., 0., 0.,
             5.4771491482643967e+01, 0., 0., 0., 5.1748246001843953e+01 ]
      - !!opencv-matrix
         rows: 3
         cols: 3
         dt: d
         data: [ 4.5492560668730096e+02, 0., 0., 0.,
             5.8373200738350067e+02, 0., 0., 0., 8.5696931919099745e+02 ]
