%YAML:1.0
---
opencv_ml_em:
   format: 3
   training_params:
      nclusters: 3
      cov_mat_type: diagonal
      epsilon: 9.9999999999999995e-07
      iterations: 100
   weights: !!opencv-matrix
      rows: 1
      cols: 3
      dt: d
      data: [ 7.6852655861766028e-01, 9.4038235386307664e-02,
          1.3743520599603187e-01 ]
   means: !!opencv-matrix
      rows: 3
      cols: 3
      dt: d
      data: [ 2.8565276880368309e+01, 2.1602618974139414e+01,
          1.4911846389100507e+01, 8.4586113782209438e+01,
          8.4552359514782538e+01, 7.0093410543301943e+01,
          4.4329960003708301e+01, 3.6121339853489616e+01,
          2.7559297056523963e+01 ]
   covs:
      - !!opencv-matrix
         rows: 3
         cols: 3
         dt: d
         data: [ 1.3863911179245282e+01, 0., 0., 0.,
             1.2907883164412819e+01, 0., 0., 0., 9.3341784871777058e+00 ]
      - !!opencv-matrix
         rows: 3
         cols: 3
         dt: d
         data: [ 4.6056759917400478e+02, 0., 0., 0.,
             5.2917986759879705e+02, 0., 0., 0., 5.7885297182275860e+02 ]
      - !!opencv-matrix
         rows: 3
         cols: 3
         dt: d
         data: [ 4.0364625652249813e+01, 0., 0., 0.,
             3.9871035707662543e+01, 0., 0., 0., 3.2930014143597255e+01 ]
