%YAML:1.0
---
opencv_ml_em:
   format: 3
   training_params:
      nclusters: 3
      cov_mat_type: diagonal
      epsilon: 9.9999999999999995e-07
      iterations: 100
   weights: !!opencv-matrix
      rows: 1
      cols: 3
      dt: d
      data: [ 5.0598515680225387e-01, 2.2921943978913989e-01,
          2.6479540340860686e-01 ]
   means: !!opencv-matrix
      rows: 3
      cols: 3
      dt: d
      data: [ 2.8601472153541422e+01, 2.1610863070941313e+01,
          1.4841796289388565e+01, 1.1308056423986933e+02,
          1.0804053599151052e+02, 8.5067215064199146e+01,
          5.8163262014194522e+01, 4.9923781132392364e+01,
          3.8377477882811803e+01 ]
   covs:
      - !!opencv-matrix
         rows: 3
         cols: 3
         dt: d
         data: [ 1.5419849080544196e+01, 0., 0., 0.,
             1.4108436042886034e+01, 0., 0., 0., 1.1006679986035259e+01 ]
      - !!opencv-matrix
         rows: 3
         cols: 3
         dt: d
         data: [ 1.1014921259662176e+03, 0., 0., 0.,
             1.0579848026009620e+03, 0., 0., 0., 9.4469118079306895e+02 ]
      - !!opencv-matrix
         rows: 3
         cols: 3
         dt: d
         data: [ 2.0544896971241906e+02, 0., 0., 0.,
             1.6906853113178198e+02, 0., 0., 0., 1.2951652304624056e+02 ]
