%YAML:1.0
---
opencv_ml_em:
   format: 3
   training_params:
      nclusters: 3
      cov_mat_type: diagonal
      epsilon: 9.9999999999999995e-07
      iterations: 100
   weights: !!opencv-matrix
      rows: 1
      cols: 3
      dt: d
      data: [ 4.5789587982620500e-01, 4.0462488243341554e-01,
          1.3747923774037973e-01 ]
   means: !!opencv-matrix
      rows: 3
      cols: 3
      dt: d
      data: [ 7.5741373275243248e+01, 6.3204565886021790e+01,
          4.5084645906599746e+01, 1.1083678179478783e+02,
          9.1445478022610786e+01, 6.1689690226986293e+01,
          1.4745401002137112e+02, 1.2302734858008554e+02,
          8.9571592542393802e+01 ]
   covs:
      - !!opencv-matrix
         rows: 3
         cols: 3
         dt: d
         data: [ 2.3508997148303953e+02, 0., 0., 0.,
             1.4712863177471027e+02, 0., 0., 0., 1.6492251810880578e+02 ]
      - !!opencv-matrix
         rows: 3
         cols: 3
         dt: d
         data: [ 1.2434357915749305e+02, 0., 0., 0.,
             8.5185282470657953e+01, 0., 0., 0., 5.3231621001934876e+01 ]
      - !!opencv-matrix
         rows: 3
         cols: 3
         dt: d
         data: [ 5.6540608079557592e+02, 0., 0., 0.,
             3.4884938739830022e+02, 0., 0., 0., 3.0062829623881447e+02 ]
