%YAML:1.0
---
opencv_ml_em:
   format: 3
   training_params:
      nclusters: 3
      cov_mat_type: diagonal
      epsilon: 9.9999999999999995e-07
      iterations: 100
   weights: !!opencv-matrix
      rows: 1
      cols: 3
      dt: d
      data: [ 4.8598552623364327e-01, 3.4641010695292990e-01,
          1.6760436681342641e-01 ]
   means: !!opencv-matrix
      rows: 3
      cols: 3
      dt: d
      data: [ 6.0383191171919599e+01, 5.4496344552301075e+01,
          3.5356659328788538e+01, 2.9959933955183438e+01,
          2.3253276722987390e+01, 1.3240765650116316e+01,
          9.5471657248018388e+01, 9.1962792070396446e+01,
          5.7465271027042924e+01 ]
   covs:
      - !!opencv-matrix
         rows: 3
         cols: 3
         dt: d
         data: [ 1.1808580986591554e+02, 0., 0., 0.,
             9.7835282815912706e+01, 0., 0., 0., 8.2301706887332585e+01 ]
      - !!opencv-matrix
         rows: 3
         cols: 3
         dt: d
         data: [ 2.7898829801542977e+01, 0., 0., 0.,
             3.8534665213380400e+01, 0., 0., 0., 1.6673515506232992e+01 ]
      - !!opencv-matrix
         rows: 3
         cols: 3
         dt: d
         data: [ 2.2004266920709887e+02, 0., 0., 0.,
             3.9270586602426181e+02, 0., 0., 0., 1.9310985847651438e+02 ]
