%YAML:1.0
---
opencv_ml_em:
   format: 3
   training_params:
      nclusters: 3
      cov_mat_type: diagonal
      epsilon: 9.9999999999999995e-07
      iterations: 100
   weights: !!opencv-matrix
      rows: 1
      cols: 3
      dt: d
      data: [ 4.6577760289455772e-01, 1.7787318856948653e-01,
          3.5634920853595575e-01 ]
   means: !!opencv-matrix
      rows: 3
      cols: 3
      dt: d
      data: [ 3.2088205757328488e+01, 2.5106507448962081e+01,
          1.5849983658308057e+01, 1.0477058973433810e+02,
          1.0710219876306876e+02, 7.0950307577420574e+01,
          4.7279967566995737e+01, 4.1253449749026103e+01,
          2.3149156406918145e+01 ]
   covs:
      - !!opencv-matrix
         rows: 3
         cols: 3
         dt: d
         data: [ 1.4455441408217496e+01, 0., 0., 0.,
             1.3225894314042847e+01, 0., 0., 0., 9.8883006563553888e+00 ]
      - !!opencv-matrix
         rows: 3
         cols: 3
         dt: d
         data: [ 1.2269380949264309e+03, 0., 0., 0.,
             1.4308618060784886e+03, 0., 0., 0., 1.2008860510408354e+03 ]
      - !!opencv-matrix
         rows: 3
         cols: 3
         dt: d
         data: [ 5.6070575712754994e+01, 0., 0., 0.,
             6.8694667913730640e+01, 0., 0., 0., 8.7185792162729811e+01 ]
